<?xml version="1.0"?>
<opencv_storage>
<cascade>
  <stageType>BOOST</stageType>
  <featureType>HAAR</featureType>
  <height>24</height>
  <width>24</width>
  <stageParams>
    <boostType>GAB</boostType>
    <minHitRate>9.9500000476837158e-01</minHitRate>
    <maxFalseAlarm>5.0000000000000000e-01</maxFalseAlarm>
    <weightTrimRate>9.4999999999999996e-01</weightTrimRate>
    <maxDepth>1</maxDepth>
    <maxWeakCount>100</maxWeakCount></stageParams>
  <featureParams>
    <maxCatCount>0</maxCatCount>
    <featSize>1</featSize>
    <mode>BASIC</mode></featureParams>
  <stageNum>7</stageNum>
  <stages>
    <!-- stage 0 -->
    <_>
      <maxWeakCount>1</maxWeakCount>
      <stageThreshold>8.3486241102218628e-01</stageThreshold>
      <weakClassifiers>
        <_>
          <internalNodes>
            0 -1 9 -2.7021564543247223e-02</internalNodes>
          <leafValues>
            8.3486241102218628e-01 -1.</leafValues></_></weakClassifiers></_>
    <!-- stage 1 -->
    <_>
      <maxWeakCount>2</maxWeakCount>
      <stageThreshold>-4.7723937779664993e-02</stageThreshold>
      <weakClassifiers>
        <_>
          <internalNodes>
            0 -1 6 -3.3689320087432861e-02</internalNodes>
          <leafValues>
            1. -9.0476191043853760e-01</leafValues></_>
        <_>
          <internalNodes>
            0 -1 10 1.2971869669854641e-02</internalNodes>
          <leafValues>
            -1. 8.5703796148300171e-01</leafValues></_></weakClassifiers></_>
    <!-- stage 2 -->
    <_>
      <maxWeakCount>2</maxWeakCount>
      <stageThreshold>-3.2903656363487244e-01</stageThreshold>
      <weakClassifiers>
        <_>
          <internalNodes>
            0 -1 13 -2.1752647589892149e-03</internalNodes>
          <leafValues>
            6.0655736923217773e-01 -9.4871795177459717e-01</leafValues></_>
        <_>
          <internalNodes>
            0 -1 1 -2.5691419839859009e-02</internalNodes>
          <leafValues>
            6.1968141794204712e-01 -9.3007969856262207e-01</leafValues></_></weakClassifiers></_>
    <!-- stage 3 -->
    <_>
      <maxWeakCount>2</maxWeakCount>
      <stageThreshold>-2.1444422006607056e-01</stageThreshold>
      <weakClassifiers>
        <_>
          <internalNodes>
            0 -1 3 -2.7653945609927177e-02</internalNodes>
          <leafValues>
            6.4285713434219360e-01 -8.1818181276321411e-01</leafValues></_>
        <_>
          <internalNodes>
            0 -1 2 -1.0381359606981277e-02</internalNodes>
          <leafValues>
            6.8045639991760254e-01 -8.5730135440826416e-01</leafValues></_></weakClassifiers></_>
    <!-- stage 4 -->
    <_>
      <maxWeakCount>2</maxWeakCount>
      <stageThreshold>-1.6246472299098969e-01</stageThreshold>
      <weakClassifiers>
        <_>
          <internalNodes>
            0 -1 15 -2.5706251617521048e-03</internalNodes>
          <leafValues>
            6.3302749395370483e-01 -7.5824177265167236e-01</leafValues></_>
        <_>
          <internalNodes>
            0 -1 4 -4.9231179058551788e-02</internalNodes>
          <leafValues>
            6.2892144918441772e-01 -7.9549223184585571e-01</leafValues></_></weakClassifiers></_>
    <!-- stage 5 -->
    <_>
      <maxWeakCount>3</maxWeakCount>
      <stageThreshold>-6.7278248071670532e-01</stageThreshold>
      <weakClassifiers>
        <_>
          <internalNodes>
            0 -1 8 3.7876842543482780e-03</internalNodes>
          <leafValues>
            -5.1562500000000000e-01 9.1666668653488159e-01</leafValues></_>
        <_>
          <internalNodes>
            0 -1 14 -2.2324481979012489e-03</internalNodes>
          <leafValues>
            5.5601257085800171e-01 -9.0862083435058594e-01</leafValues></_>
        <_>
          <internalNodes>
            0 -1 5 2.0737617742270231e-03</internalNodes>
          <leafValues>
            -6.5339583158493042e-01 7.5146341323852539e-01</leafValues></_></weakClassifiers></_>
    <!-- stage 6 -->
    <_>
      <maxWeakCount>4</maxWeakCount>
      <stageThreshold>-6.8866676092147827e-01</stageThreshold>
      <weakClassifiers>
        <_>
          <internalNodes>
            0 -1 7 -5.3814065176993608e-04</internalNodes>
          <leafValues>
            6.5137612819671631e-01 -7.8021979331970215e-01</leafValues></_>
        <_>
          <internalNodes>
            0 -1 0 2.3901690728962421e-03</internalNodes>
          <leafValues>
            5.3246194124221802e-01 -9.2460650205612183e-01</leafValues></_>
        <_>
          <internalNodes>
            0 -1 12 8.6787045001983643e-03</internalNodes>
          <leafValues>
            -8.6640089750289917e-01 4.4371372461318970e-01</leafValues></_>
        <_>
          <internalNodes>
            0 -1 11 -1.2957741273567080e-04</internalNodes>
          <leafValues>
            -9.8615139722824097e-01 4.5096448063850403e-01</leafValues></_></weakClassifiers></_></stages>
  <features>
    <_>
      <rects>
        <_>
          2 12 18 3 -1.</_>
        <_>
          2 13 18 1 3.</_></rects>
      <tilted>0</tilted></_>
    <_>
      <rects>
        <_>
          6 5 9 6 -1.</_>
        <_>
          6 7 9 2 3.</_></rects>
      <tilted>0</tilted></_>
    <_>
      <rects>
        <_>
          6 6 4 13 -1.</_>
        <_>
          8 6 2 13 2.</_></rects>
      <tilted>0</tilted></_>
    <_>
      <rects>
        <_>
          6 14 9 6 -1.</_>
        <_>
          6 16 9 2 3.</_></rects>
      <tilted>0</tilted></_>
    <_>
      <rects>
        <_>
          7 5 12 6 -1.</_>
        <_>
          7 7 12 2 3.</_></rects>
      <tilted>0</tilted></_>
    <_>
      <rects>
        <_>
          7 12 3 4 -1.</_>
        <_>
          8 12 1 4 3.</_></rects>
      <tilted>0</tilted></_>
    <_>
      <rects>
        <_>
          8 3 6 9 -1.</_>
        <_>
          8 6 6 3 3.</_></rects>
      <tilted>0</tilted></_>
    <_>
      <rects>
        <_>
          8 10 9 2 -1.</_>
        <_>
          8 11 9 1 2.</_></rects>
      <tilted>0</tilted></_>
    <_>
      <rects>
        <_>
          9 11 3 2 -1.</_>
        <_>
          10 11 1 2 3.</_></rects>
      <tilted>0</tilted></_>
    <_>
      <rects>
        <_>
          10 11 7 8 -1.</_>
        <_>
          10 15 7 4 2.</_></rects>
      <tilted>0</tilted></_>
    <_>
      <rects>
        <_>
          12 6 5 8 -1.</_>
        <_>
          12 10 5 4 2.</_></rects>
      <tilted>0</tilted></_>
    <_>
      <rects>
        <_>
          12 7 2 2 -1.</_>
        <_>
          12 7 1 1 2.</_>
        <_>
          13 8 1 1 2.</_></rects>
      <tilted>0</tilted></_>
    <_>
      <rects>
        <_>
          13 13 10 4 -1.</_>
        <_>
          13 13 5 2 2.</_>
        <_>
          18 15 5 2 2.</_></rects>
      <tilted>0</tilted></_>
    <_>
      <rects>
        <_>
          14 10 4 6 -1.</_>
        <_>
          14 10 2 3 2.</_>
        <_>
          16 13 2 3 2.</_></rects>
      <tilted>0</tilted></_>
    <_>
      <rects>
        <_>
          15 9 4 6 -1.</_>
        <_>
          15 9 2 3 2.</_>
        <_>
          17 12 2 3 2.</_></rects>
      <tilted>0</tilted></_>
    <_>
      <rects>
        <_>
          17 7 2 8 -1.</_>
        <_>
          17 7 1 4 2.</_>
        <_>
          18 11 1 4 2.</_></rects>
      <tilted>0</tilted></_></features></cascade>
</opencv_storage>
